tree
version=v4
num_class=1
num_tree_per_iteration=1
label_index=0
max_feature_idx=7
objective=binary sigmoid:1
feature_names=Column_0 Column_1 Column_2 Column_3 Column_4 Column_5 Column_6 Column_7
feature_infos=[0.10160913180213935:0.99803304049007757] [0:1] [0.00062604207658916171:0.99991530198583911] [4.6427840663428851e-05:1.9960775402275608] [0.00012812697234830333:1.4932650821557363] [0.0014136860398335702:3.4391430969207737] [0:118] [0.0086629582743807821:149.85603956432777]
tree_sizes=312 348 348 554 558 558 557 346 347 663 560 347 666 349 349 767 349 662 664 666 666 769 663 768 349 349 667 349 1187 1091 560 349 665 772 349 878 556 1300 558 345 560 1087 562 349 881 559 348 348 994 888

Tree=0
num_leaves=2
num_cat=0
split_feature=6
split_gain=500
threshold=7.0000000000000009
decision_type=2
left_child=-1
right_child=-2
leaf_value=0.20000000000000001 -0.20000000000000001
leaf_weight=62.5 62.5
leaf_count=250 250
internal_value=0
internal_weight=125
internal_count=500
is_linear=0
shrinkage=0.1


Tree=1
num_leaves=2
num_cat=0
split_feature=6
split_gain=409.365
threshold=7.0000000000000009
decision_type=2
left_child=-1
right_child=-2
leaf_value=0.18187308119005771 -0.18187308119005771
leaf_weight=61.879143118858337 61.879143118858337
leaf_count=250 250
internal_value=0
internal_weight=123.758
internal_count=500
is_linear=0
shrinkage=0.1


Tree=2
num_leaves=2
num_cat=0
split_feature=6
split_gain=341.291
threshold=7.0000000000000009
decision_type=2
left_child=-1
right_child=-2
leaf_value=0.16825816740612271 -0.16825816740612271
leaf_weight=60.275707393884659 60.275707393884659
leaf_count=250 250
internal_value=0
internal_weight=120.551
internal_count=500
is_linear=0
shrinkage=0.1


Tree=3
num_leaves=4
num_cat=0
split_feature=6 0 3
split_gain=288.437 5.68434e-14 5.68434e-14
threshold=7.0000000000000009 0.91962136820342399 1.073931721076322
decision_type=2 2 2
left_child=1 -1 -2
right_child=2 -3 -4
leaf_value=0.15768741416156917 -0.15768741416156917 0.15768741416156917 -0.15768741416156917
leaf_weight=27.375937670469284 27.375937670469284 30.623930275440216 30.623930275440216
leaf_count=118 118 132 132
internal_value=0 0.157687 -0.157687
internal_weight=116 57.9999 57.9999
internal_count=500 250 250
is_linear=0
shrinkage=0.1


Tree=4
num_leaves=4
num_cat=0
split_feature=6 0 0
split_gain=246.359 1.42109e-14 1.42109e-14
threshold=7.0000000000000009 0.96849904487009975 0.48052807426781302
decision_type=2 2 2
left_child=1 -1 -2
right_child=2 -3 -4
leaf_value=0.14927178044610043 -0.14927178044610043 0.14927178044610043 -0.14927178044610043
leaf_weight=43.340997815132141 42.898742735385895 11.940887153148649 12.383142232894896
leaf_count=196 194 54 56
internal_value=0 0.149272 -0.149272
internal_weight=110.564 55.2819 55.2819
internal_count=500 250 250
is_linear=0
shrinkage=0.1


Tree=5
num_leaves=4
num_cat=0
split_feature=6 0 3
split_gain=212.198 1.42109e-14 1.42109e-14
threshold=7.0000000000000009 0.15385022073481189 0.0013476279512256715
decision_type=2 2 2
left_child=2 -2 -1
right_child=1 -3 -4
leaf_value=0.14243950394247973 -0.14243950394247973 -0.14243950394247973 0.14243950394247973
leaf_weight=6.6935944557189933 6.6935944557189933 45.600112229585648 45.600112229585648
leaf_count=32 32 218 218
internal_value=0 -0.14244 0.14244
internal_weight=104.587 52.2937 52.2937
internal_count=500 250 250
is_linear=0
shrinkage=0.1


Tree=6
num_leaves=4
num_cat=0
split_feature=6 0 3
split_gain=184.026 1.42109e-14 1.42109e-14
threshold=7.0000000000000009 0.12090603100850515 0.00029574768354348978
decision_type=2 2 2
left_child=2 -2 -1
right_child=1 -3 -4
leaf_value=0.1368052435697113 -0.1368052435697113 -0.1368052435697113 0.1368052435697113
leaf_weight=2.1632009595632544 2.1632009595632544 47.000457212328911 47.000457212328911
leaf_count=11 11 239 239
internal_value=0 -0.136805 0.136805
internal_weight=98.3273 49.1637 49.1637
internal_count=500 250 250
is_linear=0
shrinkage=0.1


Tree=7
num_leaves=2
num_cat=0
split_feature=6
split_gain=160.497
threshold=7.0000000000000009
decision_type=2
left_child=-1
right_child=-2
leaf_value=0.13209932398403795 -0.13209932398403795
leaf_weight=45.98696157336235 45.98696157336235
leaf_count=250 250
internal_value=0
internal_weight=91.9739
internal_count=500
is_linear=0
shrinkage=0.1


Tree=8
num_leaves=2
num_cat=0
split_feature=6
split_gain=140.636
threshold=7.0000000000000009
decision_type=2
left_child=-1
right_child=-2
leaf_value=0.12812716232731389 -0.12812716232731389
leaf_weight=42.833492159843445 42.833492159843445
leaf_count=250 250
internal_value=0
internal_weight=85.667
internal_count=500
is_linear=0
shrinkage=0.1


Tree=9
num_leaves=5
num_cat=0
split_feature=6 0 0 0
split_gain=123.723 7.10543e-15 7.10543e-15 7.10543e-15
threshold=7.0000000000000009 0.99246998827474375 0.56175254349140114 0.45959858156635486
decision_type=2 2 2 2
left_child=1 -1 3 -2
right_child=2 -3 -4 -5
leaf_value=0.12474463502320948 -0.12474463502320948 0.12474463502320948 -0.12474463502320948 -0.12474463502320948
leaf_weight=37.845495492219925 28.463628962635994 1.9081762433052052 2.703249678015708 8.5867930948734266
leaf_count=238 179 12 17 54
internal_value=0 0.124745 -0.124745 -0.124745
internal_weight=79.5073 39.7537 39.7537 37.0504
internal_count=500 250 250 233
is_linear=0
shrinkage=0.1


Tree=10
num_leaves=4
num_cat=0
split_feature=6 0 3
split_gain=109.213 1.42109e-14 1.42109e-14
threshold=7.0000000000000009 0.46667141914776927 0.012435403566227821
decision_type=2 2 2
left_child=2 -2 -1
right_child=1 -3 -4
leaf_value=0.12184263134723478 -0.12184263134723478 -0.12184263134723478 0.12184263134723478
leaf_weight=27.219380363821983 27.219380363821983 9.5635660737752897 9.5635660737752897
leaf_count=185 185 65 65
internal_value=0 -0.121843 0.121843
internal_weight=73.5659 36.7829 36.7829
internal_count=500 250 250
is_linear=0
shrinkage=0.1


Tree=11
num_leaves=2
num_cat=0
split_feature=6
split_gain=96.6851
threshold=7.0000000000000009
decision_type=2
left_child=-1
right_child=-2
leaf_value=0.11933702300158547 -0.11933702300158547
leaf_weight=33.94525870680809 33.94525870680809
leaf_count=250 250
internal_value=0
internal_weight=67.8905
internal_count=500
is_linear=0
shrinkage=0.1


Tree=12
num_leaves=5
num_cat=0
split_feature=6 0 3 4
split_gain=85.8089 7.10543e-15 7.10543e-15 4.44089e-16
threshold=7.0000000000000009 0.13447719208148717 0.00082269390732045314 0.011136615370021363
decision_type=2 2 2 2
left_child=2 -2 3 -1
right_child=1 -3 -4 -5
leaf_value=0.11716177659130776 -0.11716177659130796 -0.11716177659130814 0.11716177659130814 0.11716177659130805
leaf_weight=1.2502308189868956 2.5004616379737881 28.755308836698532 28.755308836698532 1.2502308189868925
leaf_count=10 20 230 230 10
internal_value=0 -0.117162 0.117162 0.117162
internal_weight=62.5115 31.2558 31.2558 2.50046
internal_count=500 250 250 20
is_linear=0
shrinkage=0.1


Tree=13
num_leaves=2
num_cat=0
split_feature=6
split_gain=76.3219
threshold=7.0000000000000009
decision_type=2
left_child=-1
right_child=-2
leaf_value=0.11526438995110283 -0.11526438995110283
leaf_weight=28.722953051328659 28.722953051328659
leaf_count=250 250
internal_value=0
internal_weight=57.4459
internal_count=500
is_linear=0
shrinkage=0.1


Tree=14
num_leaves=2
num_cat=0
split_feature=6
split_gain=68.0128
threshold=7.0000000000000009
decision_type=2
left_child=-1
right_child=-2
leaf_value=0.11360256224201973 -0.11360256224201973
leaf_weight=26.350231841206551 26.350231841206551
leaf_count=250 250
internal_value=0
internal_weight=52.7005
internal_count=500
is_linear=0
shrinkage=0.1


Tree=15
num_leaves=6
num_cat=0
split_feature=6 0 0 3 4
split_gain=60.7091 3.55271e-15 3.55271e-15 3.55271e-15 3.55271e-15
threshold=7.0000000000000009 0.86043221835395289 0.42078796014885844 0.0016345655502337856 0.0053889028601909117
decision_type=2 2 2 2 2
left_child=1 -1 -2 -3 -5
right_child=2 3 -4 4 -6
leaf_value=0.11214181150601779 -0.11214181150601799 0.1121418115060179 -0.11214181150601801 0.11214181150601793 0.11214181150601801
leaf_weight=1.8344341963529611 15.544416084885599 3.66886839270592 8.5928759723901731 4.2481634020805386 14.385826066136358
leaf_count=19 161 38 89 44 149
internal_value=0 0.112142 -0.112142 0.112142 0.112142
internal_weight=48.2746 24.1373 24.1373 22.3029 18.634
internal_count=500 250 250 231 193
is_linear=0
shrinkage=0.1


Tree=16
num_leaves=2
num_cat=0
split_feature=6
split_gain=54.2689
threshold=7.0000000000000009
decision_type=2
left_child=-1
right_child=-2
leaf_value=0.11085378572722815 -0.11085378572722815
leaf_weight=22.081069648265839 22.081069648265839
leaf_count=250 250
internal_value=0
internal_weight=44.1621
internal_count=500
is_linear=0
shrinkage=0.1


Tree=17
num_leaves=5
num_cat=0
split_feature=6 6 6 6
split_gain=48.5745 3.55271e-15 3.55271e-15 3.55271e-15
threshold=7.0000000000000009 1.5000000000000002 15.500000000000002 67.500000000000014
decision_type=2 2 2 2
left_child=1 -1 -2 -4
right_child=2 -3 3 -5
leaf_value=0.10971489632761577 -0.10971489632761543 0.10971489632761583 -0.10971489632761577 -0.10971489632761583
leaf_weight=8.7162673473358172 0.96847414970398205 11.460277438163756 9.8461538553237933 9.3619167804718
leaf_count=108 12 142 122 116
internal_value=0 0.109715 -0.109715 -0.109715
internal_weight=40.3531 20.1765 20.1765 19.2081
internal_count=500 250 250 238
is_linear=0
shrinkage=0.1


Tree=18
num_leaves=5
num_cat=0
split_feature=6 0 0 2
split_gain=43.5271 3.55271e-15 3.55271e-15 2.22045e-16
threshold=7.0000000000000009 0.98775539689326752 0.49969629008843358 0.85512294854077076
decision_type=2 2 2 2
left_child=1 -1 -2 -3
right_child=2 3 -4 -5
leaf_value=0.10870541965264649 -0.10870541965264649 0.10870541965264653 -0.10870541965264652 0.10870541965264635
leaf_weight=16.870288349688057 15.396900720894338 0.81036319583654293 3.0204446390271178 0.73669381439685822
leaf_count=229 209 11 41 10
internal_value=0 0.108705 -0.108705 0.108705
internal_weight=36.8347 18.4173 18.4173 1.54706
internal_count=500 250 250 21
is_linear=0
shrinkage=0.1


Tree=19
num_leaves=5
num_cat=0
split_feature=6 0 0 0
split_gain=39.0435 3.55271e-15 3.55271e-15 3.55271e-15
threshold=7.0000000000000009 0.85645018228489767 0.57460263106215914 0.52158890890741949
decision_type=2 2 2 2
left_child=1 -1 3 -2
right_child=2 -3 -4 -5
leaf_value=0.10780871339757388 -0.10780871339757432 0.10780871339757432 -0.10780871339757413 -0.10780871339757413
leaf_weight=0.87340334802866237 14.847856916487215 15.92281488329172 0.94058822095394212 1.0077730938792235
leaf_count=13 221 237 14 15
internal_value=0 0.107809 -0.107809 -0.107809
internal_weight=33.5924 16.7962 16.7962 15.8556
internal_count=500 250 250 236
is_linear=0
shrinkage=0.1


Tree=20
num_leaves=5
num_cat=0
split_feature=6 0 0 0
split_gain=35.0533 3.55271e-15 3.55271e-15 3.55271e-15
threshold=7.0000000000000009 0.99099681444378285 0.57941253111010349 0.54319999892638549
decision_type=2 2 2 2
left_child=1 -1 3 -2
right_child=2 -3 -4 -5
leaf_value=0.10701065593122568 -0.1070106559312257 0.10701065593122548 -0.10701065593122538 -0.10701065593122541
leaf_weight=14.387068897485733 13.897296339273447 0.91832354664802629 0.67343726754188615 0.73465883731842119
leaf_count=235 227 15 11 12
internal_value=0 0.107011 -0.107011 -0.107011
internal_weight=30.6108 15.3054 15.3054 14.632
internal_count=500 250 250 239
is_linear=0
shrinkage=0.1


Tree=21
num_leaves=6
num_cat=0
split_feature=6 3 0 0 0
split_gain=31.4959 3.55271e-15 1.77636e-15 3.55271e-15 1.77636e-15
threshold=7.0000000000000009 1.9086146603262282 0.99246998827474375 0.97178940824284721 0.54319999892638549
decision_type=2 2 2 2 2
left_child=2 4 3 -1 -2
right_child=1 -3 -4 -5 -6
leaf_value=0.10629918365868618 -0.10629918365868621 -0.10629918365868596 0.1062991836586859 0.10629918365868607 -0.10629918365868603
leaf_weight=11.260971233248709 11.874192439019675 0.83621073514223176 0.66896858811378557 2.0069057643413553 1.2264424115419394
leaf_count=202 213 15 12 36 22
internal_value=0 -0.106299 0.106299 0.106299 -0.106299
internal_weight=27.8737 13.9368 13.9368 13.2679 13.1006
internal_count=500 250 250 238 235
is_linear=0
shrinkage=0.1


Tree=22
num_leaves=5
num_cat=0
split_feature=6 0 0 4
split_gain=28.3197 1.77636e-15 1.77636e-15 8.88178e-16
threshold=7.0000000000000009 0.89742695920361437 0.41087129343786982 0.4226529994694771
decision_type=2 2 2 2
left_child=1 -1 -2 -4
right_child=2 -3 3 -5
leaf_value=0.10566394512104488 -0.10566394512104496 0.10566394512104493 -0.10566394512104481 -0.10566394512104492
leaf_weight=4.4642469882965115 7.8631623089313489 8.2182728648185712 0.71022111177444447 4.1091364324092865
leaf_count=88 155 162 14 81
internal_value=0 0.105664 -0.105664 -0.105664
internal_weight=25.365 12.6825 12.6825 4.81936
internal_count=500 250 250 95
is_linear=0
shrinkage=0.1


Tree=23
num_leaves=6
num_cat=0
split_feature=6 0 3 0 0
split_gain=25.48 3.55271e-15 3.55271e-15 1.77636e-15 1.77636e-15
threshold=7.0000000000000009 0.57460263106215914 0.025468886494044517 0.98115999576765245 0.52158890890741949
decision_type=2 2 2 2 2
left_child=2 4 3 -1 -2
right_child=1 -3 -4 -5 -6
leaf_value=0.10509600333111589 -0.10509600333111591 -0.1050960033311156 0.1050960033311156 0.10509600333111575 -0.1050960033311156
leaf_weight=9.3659867234528047 10.196468304842705 0.64593011885881502 0.64593011885881502 1.5225495658814914 0.69206798449158746
leaf_count=203 221 14 14 33 15
internal_value=0 -0.105096 0.105096 0.105096 -0.105096
internal_weight=23.0689 11.5345 11.5345 10.8885 10.8885
internal_count=500 250 250 236 236
is_linear=0
shrinkage=0.1


Tree=24
num_leaves=2
num_cat=0
split_feature=6
split_gain=22.9381
threshold=7.0000000000000009
decision_type=2
left_child=-1
right_child=-2
leaf_value=0.10458761393978043 -0.10458761393978047
leaf_weight=10.484959930181505 10.484959930181502
leaf_count=250 250
internal_value=0
internal_weight=20.9699
internal_count=500
is_linear=0
shrinkage=0.1


Tree=25
num_leaves=2
num_cat=0
split_feature=6
split_gain=20.6602
threshold=7.0000000000000009
decision_type=2
left_child=-1
right_child=-2
leaf_value=0.10413205333539799 -0.10413205333539804
leaf_weight=9.5265721902251261 9.5265721902251226
leaf_count=250 250
internal_value=0
internal_weight=19.0531
internal_count=500
is_linear=0
shrinkage=0.1


Tree=26
num_leaves=5
num_cat=0
split_feature=6 0 0 1
split_gain=18.6171 1.77636e-15 1.77636e-15 1.77636e-15
threshold=7.0000000000000009 0.57941253111010349 0.35737274431357102 0.70000000000000007
decision_type=2 2 2 2
left_child=3 2 -2 -1
right_child=1 -3 -4 -5
leaf_value=0.10372341650791586 -0.10372341650791622 -0.10372341650791567 -0.10372341650791612 0.10372341650791612
leaf_weight=1.0036583319306389 4.4299402236938441 0.38069798797369081 3.8415887877345085 7.6485686674714088
leaf_count=29 128 11 111 221
internal_value=0 -0.103723 -0.103723 0.103723
internal_weight=17.3045 8.65223 8.27153 8.65223
internal_count=500 250 239 250
is_linear=0
shrinkage=0.1


Tree=27
num_leaves=2
num_cat=0
split_feature=6
split_gain=16.7828
threshold=7.0000000000000009
decision_type=2
left_child=-1
right_child=-2
leaf_value=0.10335657600081949 -0.10335657600081949
leaf_weight=7.8552290797233582 7.8552290797233582
leaf_count=250 250
internal_value=0
internal_weight=15.7105
internal_count=500
is_linear=0
shrinkage=0.1


Tree=28
num_leaves=10
num_cat=0
split_feature=6 0 0 0 0 2 0 0 0
split_gain=15.1348 1.77636e-15 1.77636e-15 8.88178e-16 4.44089e-16 4.44089e-16 2.22045e-16 2.22045e-16 1.11022e-16
threshold=7.0000000000000009 0.89616970681667751 0.45959858156635486 0.9893512161197725 0.8707761103598527 0.21108263231827071 0.86375444033952309 0.88629306718089651 0.87960239079649893
decision_type=2 2 2 2 2 2 2 2 2
left_child=1 4 -2 -3 6 -4 -1 8 -6
right_child=2 3 5 -5 7 -7 -8 -9 -10
leaf_value=0.10302697128541201 -0.10302697128541216 0.10302697128541216 -0.10302697128541205 0.10302697128541201 0.10302697128541204 -0.10302697128541211 0.10302697128541188 0.10302697128541199 0.10302697128541188
leaf_weight=0.71292850188910983 5.1045680735260248 4.1920195911079645 0.99809990264475379 0.51330852136015881 0.5133085213601587 1.0266170427203176 0.34220568090677261 0.51330852136015892 0.34220568090677261
leaf_count=25 179 147 35 18 18 36 12 18 12
internal_value=0 0.103027 -0.103027 0.103027 0.103027 -0.103027 0.103027 0.103027 0.103027
internal_weight=14.2586 7.12929 7.12929 4.70533 2.42396 2.02472 1.05513 1.36882 0.855514
internal_count=500 250 250 165 85 71 37 48 30
is_linear=0
shrinkage=0.1


Tree=29
num_leaves=9
num_cat=0
split_feature=6 0 0 3 3 2 4 4
split_gain=13.6532 8.88178e-16 8.88178e-16 8.88178e-16 8.88178e-16 2.22045e-16 2.22045e-16 1.11022e-16
threshold=7.0000000000000009 0.46667141914776927 0.13447719208148717 0.012435403566227821 0.00082269390732045314 0.15360911920615597 0.010114061579030205 0.0052577319306964599
decision_type=2 2 2 2 2 2 2 2
left_child=3 2 -2 4 -1 -3 7 -5
right_child=1 5 -4 6 -6 -7 -8 -9
leaf_value=0.10273063016458257 -0.10273063016458257 -0.10273063016458257 -0.10273063016458273 0.10273063016458257 0.10273063016458273 -0.10273063016458268 0.10273063016458264 0.10273063016458242
leaf_weight=0.51748029887676228 0.51748029887676228 0.51748029887676228 4.2692124657332897 0.41398423910140969 4.2692124657332897 1.1643306724727152 0.95733855292201042 0.31048817932605743
leaf_count=20 20 20 165 16 165 45 37 12
internal_value=0 -0.102731 -0.102731 0.102731 0.102731 -0.102731 0.102731 0.102731
internal_weight=12.937 6.4685 4.78669 6.4685 4.78669 1.68181 1.68181 0.724472
internal_count=500 250 185 250 185 65 65 28
is_linear=0
shrinkage=0.1


Tree=30
num_leaves=4
num_cat=0
split_feature=6 0 3
split_gain=12.3202 8.88178e-16 8.88178e-16
threshold=7.0000000000000009 0.12898608912546064 0.00042669503074824704
decision_type=2 2 2
left_child=2 -2 -1
right_child=1 -3 -4
leaf_value=0.10246404444141775 -0.10246404444141775 -0.10246404444141802 0.10246404444141802
leaf_weight=0.32857420295476902 0.32857420295476902 5.538822278380394 5.538822278380394
leaf_count=14 14 236 236
internal_value=0 -0.102464 0.102464
internal_weight=11.7348 5.8674 5.8674
internal_count=500 250 250
is_linear=0
shrinkage=0.1


Tree=31
num_leaves=2
num_cat=0
split_feature=6
split_gain=11.1204
threshold=7.0000000000000009
decision_type=2
left_child=-1
right_child=-2
leaf_value=0.10222407114423182 -0.10222407114423182
leaf_weight=5.3208684548735619 5.3208684548735619
leaf_count=250 250
internal_value=0
internal_weight=10.6417
internal_count=500
is_linear=0
shrinkage=0.1


Tree=32
num_leaves=5
num_cat=0
split_feature=6 0 0 0
split_gain=10.0398 8.88178e-16 8.88178e-16 1.11022e-16
threshold=7.0000000000000009 0.99246998827474375 0.52158890890741949 0.57460263106215914
decision_type=2 2 2 2
left_child=1 -1 -2 -4
right_child=2 -3 3 -5
leaf_value=0.10200795490764672 -0.10200795490764672 0.10200795490764634 -0.10200795490764643 -0.10200795490764636
leaf_weight=4.5926399007439613 4.2645941935479641 0.23156167566776265 0.28945209458470333 0.27015528827905655
leaf_count=238 221 12 15 14
internal_value=0 0.102008 -0.102008 -0.102008
internal_weight=9.6484 4.8242 4.8242 0.559607
internal_count=500 250 250 29
is_linear=0
shrinkage=0.1


Tree=33
num_leaves=6
num_cat=0
split_feature=6 0 3 0 3
split_gain=9.06613 8.88178e-16 8.88178e-16 4.44089e-16 4.44089e-16
threshold=7.0000000000000009 0.92856169457606741 1.1373193459684015 0.85821717725636426 0.30849459112947919
decision_type=2 2 2 2 2
left_child=1 3 4 -1 -2
right_child=2 -3 -4 -5 -6
leaf_value=0.10181321847770529 -0.10181321847770529 0.10181321847770573 -0.10181321847770573 0.10181321847770573 -0.10181321847770573
leaf_weight=0.27987468242645297 0.27987468242645297 2.0465836152434349 2.0465836152434349 2.0465836152434349 2.0465836152434349
leaf_count=16 16 117 117 117 117
internal_value=0 0.101813 -0.101813 0.101813 -0.101813
internal_weight=8.74608 4.37304 4.37304 2.32646 2.32646
internal_count=500 250 250 133 133
is_linear=0
shrinkage=0.1


Tree=34
num_leaves=2
num_cat=0
split_feature=6
split_gain=8.18851
threshold=7.0000000000000009
decision_type=2
left_child=-1
right_child=-2
leaf_value=0.10163770747741115 -0.10163770747741115
leaf_weight=3.9633773267269135 3.9633773267269135
leaf_count=250 250
internal_value=0
internal_weight=7.92675
internal_count=500
is_linear=0
shrinkage=0.1


Tree=35
num_leaves=7
num_cat=0
split_feature=6 0 0 0 0 0
split_gain=7.39715 4.44089e-16 4.44089e-16 4.44089e-16 2.22045e-16 1.11022e-16
threshold=7.0000000000000009 0.96605331944933304 0.41824025903661388 0.39265623128890931 0.54319999892638549 0.99099681444378285
decision_type=2 2 2 2 2 2
left_child=1 -1 3 -2 -4 -3
right_child=2 5 4 -5 -6 -7
leaf_value=0.10147943037564376 -0.10147943037564372 0.10147943037564366 -0.10147943037564373 -0.1014794303756434 -0.10147943037564351 0.10147943037564333
leaf_weight=2.7726539894938473 2.0543498471379289 0.60337547957897175 0.99125971645116784 0.21549124270677555 0.33041990548372269 0.21549124270677567
leaf_count=193 143 42 69 15 23 15
internal_value=0 0.101479 -0.101479 -0.101479 -0.101479 0.101479
internal_weight=7.18304 3.59152 3.59152 2.26984 1.32168 0.818867
internal_count=500 250 250 158 92 57
is_linear=0
shrinkage=0.1


Tree=36
num_leaves=4
num_cat=0
split_feature=6 0 3
split_gain=6.68332 4.44089e-16 4.44089e-16
threshold=7.0000000000000009 0.95213480412658302 1.4555656397647236
decision_type=2 2 2
left_child=1 -1 -2
right_child=2 -3 -4
leaf_value=0.10133666518796235 -0.10133666518796235 0.1013366651879623 -0.1013366651879623
leaf_weight=2.2388122975826268 2.2388122975826268 1.0152753442525861 1.0152753442525861
leaf_count=172 172 78 78
internal_value=0 0.101337 -0.101337
internal_weight=6.50818 3.25409 3.25409
internal_count=500 250 250
is_linear=0
shrinkage=0.1


Tree=37
num_leaves=11
num_cat=0
split_feature=6 0 0 0 0 0 0 2 2 2
split_gain=6.03924 4.44089e-16 4.44089e-16 4.44089e-16 4.44089e-16 2.22045e-16 2.22045e-16 1.11022e-16 5.55112e-17 5.55112e-17
threshold=7.0000000000000009 0.97083341740473827 0.94498789103377689 0.49217219039921623 0.41087129343786982 0.19802325042017563 0.34662420482130801 0.91586036414093697 0.80754898032345157 0.24191494048041565
decision_type=2 2 2 2 2 2 2 2 2 2
left_child=1 2 -1 4 5 -2 -7 8 -4 -8
right_child=3 -3 7 -5 -6 6 9 -9 -10 -11
leaf_value=0.10120785390948038 -0.10120785390948017 0.10120785390948031 0.10120785390947998 -0.10120785390948031 -0.10120785390948031 -0.10120785390948038 -0.10120785390948009 0.1012078539094796 0.10120785390947994 -0.1012078539094796
leaf_weight=1.8513295846059925 0.62497113365680057 0.60138731729239214 0.1886705309152602 0.55421968456357706 0.56601159274578083 0.81364166457205989 0.2712138881906867 0.1179190818220377 0.18867053091526031 0.1179190818220377
leaf_count=157 53 51 16 47 48 69 23 10 16 10
internal_value=0 0.101208 0.101208 -0.101208 -0.101208 -0.101208 -0.101208 0.101208 0.101208 -0.101208
internal_weight=5.89595 2.94798 2.34659 2.94798 2.39376 1.82775 1.20277 0.49526 0.377341 0.389133
internal_count=500 250 199 250 203 155 102 42 32 33
is_linear=0
shrinkage=0.1


Tree=38
num_leaves=4
num_cat=0
split_feature=6 0 3
split_gain=5.45794 4.44089e-16 4.44089e-16
threshold=7.0000000000000009 0.87798164269644186 0.60840086052728848
decision_type=2 2 2
left_child=1 -1 -2
right_child=2 -3 -4
leaf_value=0.1010915877856909 -0.1010915877856909 0.10109158778569111 -0.10109158778569111
leaf_weight=0.55543314293026957 0.55543314293026957 2.1149185057729483 2.1149185057729483
leaf_count=52 52 198 198
internal_value=0 0.101092 -0.101092
internal_weight=5.3407 2.67035 2.67035
internal_count=500 250 250
is_linear=0
shrinkage=0.1


Tree=39
num_leaves=2
num_cat=0
split_feature=6
split_gain=4.93316
threshold=7.0000000000000009
decision_type=2
left_child=-1
right_child=-2
leaf_value=0.100986630288385 -0.100986630288385
leaf_weight=2.4186174850910902 2.4186174850910902
leaf_count=250 250
internal_value=0
internal_weight=4.83723
internal_count=500
is_linear=0
shrinkage=0.1


Tree=40
num_leaves=4
num_cat=0
split_feature=6 0 0
split_gain=4.4593 4.44089e-16 4.44089e-16
threshold=7.0000000000000009 0.99099681444378285 0.56175254349140114
decision_type=2 2 2
left_child=1 -1 -2
right_child=2 -3 -4
leaf_value=0.10089186280423795 -0.10089186280423795 0.10089186280423733 -0.10089186280423741
leaf_weight=2.0589822670444851 2.0414590137079363 0.13142440002411593 0.14894765336066473
leaf_count=235 233 15 17
internal_value=0 0.100892 -0.100892
internal_weight=4.38081 2.19041 2.19041
internal_count=500 250 250
is_linear=0
shrinkage=0.1


Tree=41
num_leaves=9
num_cat=0
split_feature=6 0 0 0 0 0 0 0
split_gain=4.03135 4.44089e-16 4.44089e-16 2.22045e-16 2.22045e-16 2.22045e-16 1.11022e-16 1.11022e-16
threshold=7.0000000000000009 0.96265319077458067 0.22862095769777138 0.89195641200081022 0.3165240622795179 0.46667141914776927 0.88561649736169012 0.4289581323843214
decision_type=2 2 2 2 2 2 2 2
left_child=1 3 -2 6 -4 7 -1 -6
right_child=2 -3 4 -5 5 -7 -8 -9
leaf_value=0.10080626134333202 -0.10080626134333209 0.10080626134333209 -0.10080626134333193 0.10080626134333213 -0.10080626134333211 -0.10080626134333207 0.1008062613433312 -0.10080626134333155
leaf_weight=0.50779116153717063 0.53952810913324345 0.49985692463815201 0.28563252836465824 0.88070029579102993 0.4998569246381519 0.5157253984361887 0.095210842788219452 0.14281626418232918
leaf_count=64 68 63 36 111 63 65 12 18
internal_value=0 0.100806 -0.100806 0.100806 -0.100806 -0.100806 0.100806 -0.100806
internal_weight=3.96712 1.98356 1.98356 1.4837 1.44403 1.1584 0.603002 0.642673
internal_count=500 250 250 187 182 146 76 81
is_linear=0
shrinkage=0.1


Tree=42
num_leaves=4
num_cat=0
split_feature=6 0 3
split_gain=3.64477 2.22045e-16 2.22045e-16
threshold=7.0000000000000009 0.2894569811996664 0.0043282748184067443
decision_type=2 2 2
left_child=2 -2 -1
right_child=1 -3 -4
leaf_value=0.10072895278937558 -0.10072895278937564 -0.10072895278937569 0.10072895278937569
leaf_weight=0.68252032157033715 0.68252032157033671 1.1135857878252862 1.1135857878252862
leaf_count=95 95 155 155
internal_value=0 -0.100729 0.100729
internal_weight=3.59221 1.79611 1.79611
internal_count=500 250 250
is_linear=0
shrinkage=0.1


Tree=43
num_leaves=2
num_cat=0
split_feature=6
split_gain=3.29552
threshold=7.0000000000000009
decision_type=2
left_child=-1
right_child=-2
leaf_value=0.10065910400425378 -0.10065910400425382
leaf_weight=1.6262544086202981 1.6262544086202977
leaf_count=250 250
internal_value=0
internal_weight=3.25251
internal_count=500
is_linear=0
shrinkage=0.1


Tree=44
num_leaves=7
num_cat=0
split_feature=6 0 0 0 2 3
split_gain=2.97995 2.22045e-16 2.22045e-16 2.22045e-16 5.55112e-17 1.11022e-16
threshold=7.0000000000000009 0.94945180400965301 0.89309439604684282 0.25680575720831811 0.34318080289208103 1.0079019176681581
decision_type=2 2 2 2 2 2
left_child=1 2 -1 4 5 -2
right_child=3 -3 -4 -5 -6 -7
leaf_value=0.10059598753279259 -0.10059598753279227 0.10059598753279263 0.10059598753279264 -0.10059598753279275 -0.10059598753279114 -0.10059598753279245
leaf_weight=0.46526958234608196 0.15901618637144554 0.47704855911433697 0.53005395457148552 1.0012130253016946 0.058894883841276169 0.25324800051748753
leaf_count=79 27 81 90 170 10 43
internal_value=0 0.100596 0.100596 -0.100596 -0.100596 -0.100596
internal_weight=2.94474 1.47237 0.995324 1.47237 0.471159 0.412264
internal_count=500 250 169 250 80 70
is_linear=0
shrinkage=0.1


Tree=45
num_leaves=4
num_cat=0
split_feature=6 0 2
split_gain=2.69476 2.22045e-16 2.77556e-17
threshold=7.0000000000000009 0.97928755068489537 0.88635943773720083
decision_type=2 2 2
left_child=1 -1 -3
right_child=-2 2 -4
leaf_value=0.10053895288504976 -0.10053895288504983 0.10053895288504928 0.10053895288504817
leaf_weight=1.1250306973233821 1.3329747598618267 0.1492931731045245 0.058650889433920383
leaf_count=211 250 28 11
internal_value=0 0.100539 0.100539
internal_weight=2.66595 1.33297 0.207944
internal_count=500 250 39
is_linear=0
shrinkage=0.1


Tree=46
num_leaves=2
num_cat=0
split_feature=6
split_gain=2.43701
threshold=7.0000000000000009
decision_type=2
left_child=-1
right_child=-2
leaf_value=0.10048740143222035 -0.1004874014322204
leaf_weight=1.2067126808688047 1.2067126808688042
leaf_count=250 250
internal_value=0
internal_weight=2.41343
internal_count=500
is_linear=0
shrinkage=0.1


Tree=47
num_leaves=2
num_cat=0
split_feature=6
split_gain=2.20402
threshold=7.0000000000000009
decision_type=2
left_child=-1
right_child=-2
leaf_value=0.10044080450178593 -0.10044080450178597
leaf_weight=1.092359656468034 1.0923596564680336
leaf_count=250 250
internal_value=0
internal_weight=2.18472
internal_count=500
is_linear=0
shrinkage=0.1


Tree=48
num_leaves=8
num_cat=0
split_feature=6 0 0 0 3 3 0
split_gain=1.9934 1.11022e-16 1.11022e-16 1.11022e-16 1.11022e-16 1.11022e-16 1.38778e-17
threshold=7.0000000000000009 0.99099681444378285 0.54319999892638549 0.3075709376771722 0.0028005977500594409 0.020636474372969098 0.57941253111010349
decision_type=2 2 2 2 2 2 2
left_child=1 4 3 -2 -1 -6 -4
right_child=2 -3 6 -5 5 -7 -8
leaf_value=0.10039868185275234 -0.1003986818527525 0.10039868185275105 -0.10039868185275064 -0.10039868185275254 0.10039868185275257 0.1003986818527518 -0.10039868185275043
leaf_weight=0.25708838365972042 0.39947579614818096 0.059328088536858559 0.047462470829486847 0.49835594370961189 0.56559444405138493 0.10679055936634541 0.04350726492702961
leaf_count=65 101 15 12 126 143 27 11
internal_value=0 0.100399 -0.100399 -0.100399 0.100399 0.100399 -0.100399
internal_weight=1.9776 0.988801 0.988801 0.897832 0.929473 0.672385 0.0909697
internal_count=500 250 250 227 235 170 23
is_linear=0
shrinkage=0.1


Tree=49
num_leaves=7
num_cat=0
split_feature=6 0 0 0 0 0
split_gain=1.80299 1.11022e-16 1.11022e-16 1.11022e-16 1.11022e-16 1.38778e-17
threshold=7.0000000000000009 0.86493577426543122 0.57460263106215914 0.5084330672063907 0.43445963707419422 0.85821717725636426
decision_type=2 2 2 2 2 2
left_child=1 5 3 4 -2 -1
right_child=2 -3 -4 -5 -6 -7
leaf_value=0.10036059702750344 -0.10036059702750502 0.10036059702750506 -0.1003605970275032 -0.10036059702750387 -0.10036059702750458 0.10036059702750287
leaf_weight=0.057281717658042908 0.60861825011670589 0.79478383250534534 0.050121502950787544 0.075182254426181316 0.16110483091324568 0.042961288243532181
leaf_count=16 170 222 14 21 45 12
internal_value=0 0.100361 -0.100361 -0.100361 -0.100361 0.100361
internal_weight=1.79005 0.895027 0.895027 0.844905 0.769723 0.100243
internal_count=500 250 250 236 215 28
is_linear=0
shrinkage=0.1


end of trees

feature_importances:
Column_0=81
Column_6=53
Column_3=19
Column_2=8
Column_4=5
Column_1=1

parameters:
[boosting: gbdt]
[objective: binary]
[metric: binary_logloss]
[tree_learner: serial]
[device_type: cpu]
[data_sample_strategy: bagging]
[data: ]
[valid: ]
[num_iterations: 50]
[learning_rate: 0.1]
[num_leaves: 15]
[num_threads: 0]
[seed: 0]
[deterministic: 0]
[force_col_wise: 0]
[force_row_wise: 0]
[histogram_pool_size: -1]
[max_depth: -1]
[min_data_in_leaf: 10]
[min_sum_hessian_in_leaf: 0.001]
[bagging_fraction: 1]
[pos_bagging_fraction: 1]
[neg_bagging_fraction: 1]
[bagging_freq: 0]
[bagging_seed: 3]
[bagging_by_query: 0]
[feature_fraction: 1]
[feature_fraction_bynode: 1]
[feature_fraction_seed: 2]
[extra_trees: 0]
[extra_seed: 6]
[early_stopping_round: 0]
[early_stopping_min_delta: 0]
[first_metric_only: 0]
[max_delta_step: 0]
[lambda_l1: 0]
[lambda_l2: 0]
[linear_lambda: 0]
[min_gain_to_split: 0]
[drop_rate: 0.1]
[max_drop: 50]
[skip_drop: 0.5]
[xgboost_dart_mode: 0]
[uniform_drop: 0]
[drop_seed: 4]
[top_rate: 0.2]
[other_rate: 0.1]
[min_data_per_group: 100]
[max_cat_threshold: 32]
[cat_l2: 10]
[cat_smooth: 10]
[max_cat_to_onehot: 4]
[top_k: 20]
[monotone_constraints: ]
[monotone_constraints_method: basic]
[monotone_penalty: 0]
[feature_contri: ]
[forcedsplits_filename: ]
[refit_decay_rate: 0.9]
[cegb_tradeoff: 1]
[cegb_penalty_split: 0]
[cegb_penalty_feature_lazy: ]
[cegb_penalty_feature_coupled: ]
[path_smooth: 0]
[interaction_constraints: ]
[verbosity: -1]
[saved_feature_importance_type: 0]
[use_quantized_grad: 0]
[num_grad_quant_bins: 4]
[quant_train_renew_leaf: 0]
[stochastic_rounding: 1]
[linear_tree: 0]
[max_bin: 255]
[max_bin_by_feature: ]
[min_data_in_bin: 3]
[bin_construct_sample_cnt: 200000]
[data_random_seed: 1]
[is_enable_sparse: 1]
[enable_bundle: 1]
[use_missing: 1]
[zero_as_missing: 0]
[feature_pre_filter: 1]
[pre_partition: 0]
[two_round: 0]
[header: 0]
[label_column: ]
[weight_column: ]
[group_column: ]
[ignore_column: ]
[categorical_feature: ]
[forcedbins_filename: ]
[precise_float_parser: 0]
[parser_config_file: ]
[objective_seed: 5]
[num_class: 1]
[is_unbalance: 0]
[scale_pos_weight: 1]
[sigmoid: 1]
[boost_from_average: 1]
[reg_sqrt: 0]
[alpha: 0.9]
[fair_c: 1]
[poisson_max_delta_step: 0.7]
[tweedie_variance_power: 1.5]
[lambdarank_truncation_level: 30]
[lambdarank_norm: 1]
[label_gain: ]
[lambdarank_position_bias_regularization: 0]
[eval_at: ]
[multi_error_top_k: 1]
[auc_mu_weights: ]
[num_machines: 1]
[local_listen_port: 12400]
[time_out: 120]
[machine_list_filename: ]
[machines: ]
[gpu_platform_id: -1]
[gpu_device_id: -1]
[gpu_use_dp: 0]
[num_gpu: 1]

end of parameters

pandas_categorical:null
